digraph Tree {
node [shape=box, style="filled, rounded", color="black", fontname=helvetica] ;
edge [fontname=helvetica] ;
0 [label="petal length (cm) <= 2.45\ngini = 0.66\nsamples = 97\nvalue = [57, 50, 43]\nclass = setosa", fillcolor="#fdf6f1"] ;
1 [label="gini = 0.0\nsamples = 34\nvalue = [57, 0, 0]\nclass = setosa", fillcolor="#e58139"] ;
0 -> 1 [labeldistance=2.5, labelangle=45, headlabel="True"] ;
2 [label="petal width (cm) <= 1.75\ngini = 0.5\nsamples = 63\nvalue = [0, 50, 43]\nclass = versicolor", fillcolor="#e3fbed"] ;
0 -> 2 [labeldistance=2.5, labelangle=-45, headlabel="False"] ;
3 [label="petal length (cm) <= 5.05\ngini = 0.22\nsamples = 35\nvalue = [0, 48, 7]\nclass = versicolor", fillcolor="#56e993"] ;
2 -> 3 ;
4 [label="sepal length (cm) <= 4.95\ngini = 0.04\nsamples = 32\nvalue = [0, 47, 1]\nclass = versicolor", fillcolor="#3de684"] ;
3 -> 4 ;
5 [label="gini = 0.0\nsamples = 1\nvalue = [0, 0, 1]\nclass = virginica", fillcolor="#8139e5"] ;
4 -> 5 ;
6 [label="gini = 0.0\nsamples = 31\nvalue = [0, 47, 0]\nclass = versicolor", fillcolor="#39e581"] ;
4 -> 6 ;
7 [label="petal width (cm) <= 1.55\ngini = 0.24\nsamples = 3\nvalue = [0, 1, 6]\nclass = virginica", fillcolor="#965ae9"] ;
3 -> 7 ;
8 [label="gini = 0.0\nsamples = 2\nvalue = [0, 0, 6]\nclass = virginica", fillcolor="#8139e5"] ;
7 -> 8 ;
9 [label="gini = 0.0\nsamples = 1\nvalue = [0, 1, 0]\nclass = versicolor", fillcolor="#39e581"] ;
7 -> 9 ;
10 [label="petal length (cm) <= 4.85\ngini = 0.1\nsamples = 28\nvalue = [0, 2, 36]\nclass = virginica", fillcolor="#8844e6"] ;
2 -> 10 ;
11 [label="sepal width (cm) <= 3.1\ngini = 0.5\nsamples = 2\nvalue = [0, 2, 2]\nclass = versicolor", fillcolor="#ffffff"] ;
10 -> 11 ;
12 [label="gini = 0.0\nsamples = 1\nvalue = [0, 0, 2]\nclass = virginica", fillcolor="#8139e5"] ;
11 -> 12 ;
13 [label="gini = 0.0\nsamples = 1\nvalue = [0, 2, 0]\nclass = versicolor", fillcolor="#39e581"] ;
11 -> 13 ;
14 [label="gini = 0.0\nsamples = 26\nvalue = [0, 0, 34]\nclass = virginica", fillcolor="#8139e5"] ;
10 -> 14 ;
}