digraph Tree {
node [shape=box, style="filled, rounded", color="black", fontname=helvetica] ;
edge [fontname=helvetica] ;
0 [label="petal length (cm) <= 2.6\ngini = 0.65\nsamples = 89\nvalue = [38, 65, 47]\nclass = versicolor", fillcolor="#dcfae9"] ;
1 [label="gini = 0.0\nsamples = 28\nvalue = [38, 0, 0]\nclass = setosa", fillcolor="#e58139"] ;
0 -> 1 [labeldistance=2.5, labelangle=45, headlabel="True"] ;
2 [label="petal width (cm) <= 1.75\ngini = 0.49\nsamples = 61\nvalue = [0, 65, 47]\nclass = versicolor", fillcolor="#c8f8dc"] ;
0 -> 2 [labeldistance=2.5, labelangle=-45, headlabel="False"] ;
3 [label="petal length (cm) <= 5.35\ngini = 0.09\nsamples = 35\nvalue = [0, 64, 3]\nclass = versicolor", fillcolor="#42e687"] ;
2 -> 3 ;
4 [label="petal length (cm) <= 4.95\ngini = 0.03\nsamples = 34\nvalue = [0, 64, 1]\nclass = versicolor", fillcolor="#3ce583"] ;
3 -> 4 ;
5 [label="gini = 0.0\nsamples = 31\nvalue = [0, 61, 0]\nclass = versicolor", fillcolor="#39e581"] ;
4 -> 5 ;
6 [label="sepal length (cm) <= 6.35\ngini = 0.38\nsamples = 3\nvalue = [0, 3, 1]\nclass = versicolor", fillcolor="#7beeab"] ;
4 -> 6 ;
7 [label="petal width (cm) <= 1.55\ngini = 0.5\nsamples = 2\nvalue = [0, 1, 1]\nclass = versicolor", fillcolor="#ffffff"] ;
6 -> 7 ;
8 [label="gini = 0.0\nsamples = 1\nvalue = [0, 0, 1]\nclass = virginica", fillcolor="#8139e5"] ;
7 -> 8 ;
9 [label="gini = 0.0\nsamples = 1\nvalue = [0, 1, 0]\nclass = versicolor", fillcolor="#39e581"] ;
7 -> 9 ;
10 [label="gini = 0.0\nsamples = 1\nvalue = [0, 2, 0]\nclass = versicolor", fillcolor="#39e581"] ;
6 -> 10 ;
11 [label="gini = 0.0\nsamples = 1\nvalue = [0, 0, 2]\nclass = virginica", fillcolor="#8139e5"] ;
3 -> 11 ;
12 [label="sepal length (cm) <= 5.95\ngini = 0.04\nsamples = 26\nvalue = [0, 1, 44]\nclass = virginica", fillcolor="#843de6"] ;
2 -> 12 ;
13 [label="sepal width (cm) <= 3.1\ngini = 0.24\nsamples = 4\nvalue = [0, 1, 6]\nclass = virginica", fillcolor="#965ae9"] ;
12 -> 13 ;
14 [label="gini = 0.0\nsamples = 3\nvalue = [0, 0, 6]\nclass = virginica", fillcolor="#8139e5"] ;
13 -> 14 ;
15 [label="gini = 0.0\nsamples = 1\nvalue = [0, 1, 0]\nclass = versicolor", fillcolor="#39e581"] ;
13 -> 15 ;
16 [label="gini = 0.0\nsamples = 22\nvalue = [0, 0, 38]\nclass = virginica", fillcolor="#8139e5"] ;
12 -> 16 ;
}